svm_type c_svc
kernel_type rbf
gamma 0.00195312
nr_class 7
total_sv 45
rho 1.00215 -0.422307 -0.210705 -0.262884 -0.185522 0.404281 -0.87523 -0.352872 -1.31144 -0.411449 0.258174 -0.167645 0.426071 0.332033 0.983635 0.743006 1.43159 1.34117 -0.519129 1.07569 2.37039
label 1 0 3 5 2 4 6
nr_sv 6 6 8 7 6 7 5
SV
48.17524458931062 0 0 7.086527444224402 6.328415980083712 0.4548578807152989 1:1 2:1 3:1 4:1 5:1 6:1 7:1 8:1 9:1 10:1 11:1 12:1 13:1 14:1 15:1 16:1 17:1 18:1 19:1 20:1 21:1 22:1 23:1 24:1 25:1 26:0.96875 27:0.875 28:0.828125 29:0.796875 30:0.78125 31:0.765625 32:0.765625 33:0.75 34:0.75 35:0.75 36:0.765625 37:0.765625 38:0.796875 39:0.8125 40:0.84375 41:0.90625 42:1 43:1 44:1 45:1 46:1 47:1 48:1 49:1 50:1 51:1 52:1 53:1 54:1 55:1 56:1 57:1 58:1 59:1 60:1 61:1 62:1 63:1 64:1 65:1 66:1 67:1 68:1 69:1 70:1 71:1 72:1 73:1 74:1 75:1 76:1 77:1 78:1 79:1 80:1 81:1 82:1 83:1 84:1 85:0.953125 86:0.875 87:0.828125 88:0.796875 89:0.78125 90:0.765625 91:0.765625 92:0.75 93:0.75 94:0.765625 95:0.765625 96:0.78125 97:0.796875 98:0.8125 99:0.84375 100:0.890625 101:1 102:1 103:1 104:1 105:1 106:1 107:1 108:1 109:1 110:1 111:1 112:1 113:1 114:1 115:1 116:1 117:1 118:1 119:1 120:1 121:1 122:1 123:1 124:1 125:1 126:1 127:1 128:1 
0 256 127.1582435664504 211.9787323160284 86.07652725727996 80.94431485186733 65:1 66:0.953125 67:0.921875 68:0.90625 69:0.90625 70:0.90625 71:0.90625 72:0.890625 73:0.890625 74:0.890625 75:0.90625 76:0.90625 77:0.90625 78:0.90625 79:0.90625 80:0.90625 81:0.90625 82:0.90625 83:0.90625 84:0.90625 85:0.890625 86:0.890625 87:0.890625 88:0.890625 89:0.84375 90:0.78125 91:0.734375 92:0.71875 93:0.6875 94:0.6875 95:0.671875 96:0.671875 97:0.671875 98:0.671875 99:0.671875 100:0.703125 101:0.703125 102:0.71875 103:0.75 104:0.828125 105:0.90625 106:0.90625 107:0.90625 108:0.90625 109:0.90625 110:0.90625 111:0.90625 112:0.90625 113:0.90625 114:0.90625 115:0.90625 116:0.90625 117:0.90625 118:0.90625 119:0.90625 120:0.921875 121:0.921875 122:1 123:1 124:1 125:1 126:1 127:1 128:1 
256 0 0 0 0 0 65:1 66:1 67:1 68:1 69:0.984375 70:0.984375 71:0.96875 72:0.96875 73:0.96875 74:0.96875 75:0.96875 76:0.96875 77:0.96875 78:0.96875 79:0.984375 80:0.984375 81:0.984375 82:0.984375 83:0.984375 84:0.984375 85:0.984375 86:0.984375 87:0.984375 88:0.90625 89:0.84375 90:0.796875 91:0.765625 92:0.734375 93:0.734375 94:0.71875 95:0.734375 96:0.734375 97:0.734375 98:0.75 99:0.75 100:0.765625 101:0.796875 102:0.84375 103:0.890625 104:1 105:1 106:1 107:1 108:1 109:1 110:1 111:1 112:1 113:1 114:1 115:1 116:1 117:1 118:1 119:1 120:1 121:1 122:1 123:1 124:1 125:1 126:1 127:1 128:1 
129.3407048562407 256 0 0 0 0 65:1 66:1 67:1 68:1 69:0.984375 70:0.96875 71:0.96875 72:0.953125 73:0.953125 74:0.953125 75:0.953125 76:0.953125 77:0.953125 78:0.953125 79:0.953125 80:0.953125 81:0.953125 82:0.953125 83:0.953125 84:0.953125 85:0.953125 86:0.953125 87:0.921875 88:0.8125 89:0.78125 90:0.75 91:0.71875 92:0.703125 93:0.671875 94:0.65625 95:0.65625 96:0.65625 97:0.65625 98:0.703125 99:0.703125 100:0.734375 101:0.75 102:0.78125 103:0.84375 104:0.921875 105:0.921875 106:0.921875 107:0.921875 108:0.921875 109:0.921875 110:0.921875 111:0.921875 112:0.90625 113:0.90625 114:0.90625 115:0.90625 116:0.90625 117:0.90625 118:0.90625 119:0.90625 120:0.90625 121:0.921875 122:0.921875 123:0.921875 124:0.953125 125:1 126:1 127:1 128:1 
256 56.23763561949775 0 11.38409008262351 0 0 65:1 66:1 67:1 68:1 69:1 70:1 71:1 72:1 73:0.9375 74:0.921875 75:0.921875 76:0.921875 77:0.921875 78:0.921875 79:0.921875 80:0.921875 81:0.921875 82:0.921875 83:0.921875 84:0.921875 85:0.921875 86:0.921875 87:0.921875 88:0.921875 89:0.921875 90:0.9375 91:0.9375 92:0.9375 93:0.828125 94:0.78125 95:0.75 96:0.734375 97:0.703125 98:0.703125 99:0.703125 100:0.6875 101:0.6875 102:0.71875 103:0.734375 104:0.734375 105:0.765625 106:0.796875 107:0.859375 108:0.953125 109:0.953125 110:0.953125 111:0.953125 112:0.953125 113:0.953125 114:0.953125 115:0.953125 116:0.953125 117:0.96875 118:0.96875 119:0.96875 120:0.96875 121:0.96875 122:0.96875 123:0.96875 124:0.96875 125:0.984375 126:1 127:1 128:1 
256 96.80700389836561 32.39697336376102 73.17581894055516 28.3161114929256 0 1:1 2:1 3:1 4:1 5:1 6:1 7:1 8:1 9:1 10:1 11:1 12:1 13:1 14:1 15:1 16:1 17:1 18:1 19:1 20:1 21:1 22:1 23:1 24:0.96875 25:0.875 26:0.84375 27:0.8125 28:0.78125 29:0.78125 30:0.765625 31:0.765625 32:0.765625 33:0.765625 34:0.78125 35:0.796875 36:0.8125 37:0.828125 38:0.875 39:0.953125 40:1 41:1 42:1 43:1 44:1 45:1 46:1 47:1 48:1 49:1 50:1 51:1 52:1 53:1 54:1 55:1 56:1 57:1 58:1 59:1 60:1 61:1 62:0.9375 63:0.734375 64:0.640625 65:1 66:1 67:1 68:1 69:1 70:1 71:1 72:1 73:1 74:1 75:0.96875 76:0.953125 77:0.953125 78:0.953125 79:0.953125 80:0.96875 81:0.96875 82:0.96875 83:0.96875 84:0.96875 85:0.96875 86:0.96875 87:0.96875 88:0.96875 89:0.96875 90:0.96875 91:0.96875 92:0.984375 93:0.984375 94:0.984375 95:0.875 96:0.828125 97:0.8125 98:0.78125 99:0.78125 100:0.765625 101:0.75 102:0.75 103:0.78125 104:0.78125 105:0.78125 106:0.796875 107:0.828125 108:0.875 109:0.9375 110:1 111:1 112:1 113:1 114:1 115:1 116:1 117:1 118:1 119:1 120:1 121:1 122:1 123:1 124:1 125:1 126:1 127:1 128:1 
-11.10827726452095 128.8535059860642 32.11526380576037 1.324774475793364 23.13921819763535 4.719931822574477 1:1 2:1 3:1 4:1 5:1 6:1 7:1 8:1 9:1 10:1 11:1 12:1 13:1 14:1 15:1 16:1 17:1 18:1 19:1 20:1 21:1 22:1 23:1 24:1 25:1 26:1 27:1 28:1 29:1 30:1 31:1 32:1 33:1 34:1 35:1 36:1 37:1 38:1 39:1 40:1 41:1 42:1 43:1 44:1 45:1 46:1 47:1 48:1 49:1 50:1 51:1 52:1 53:1 54:1 55:1 56:1 57:1 58:1 59:0.78125 60:0.421875 61:0.203125 62:0.1875 63:0.1875 64:0.21875 65:1 66:1 67:1 68:1 69:0.953125 70:0.9375 71:0.9375 72:0.9375 73:0.9375 74:0.9375 75:0.9375 76:0.9375 77:0.9375 78:0.9375 79:0.9375 80:0.9375 81:0.9375 82:0.9375 83:0.9375 84:0.921875 85:0.921875 86:0.921875 87:0.921875 88:0.921875 89:0.921875 90:0.921875 91:0.921875 92:0.921875 93:0.921875 94:0.921875 95:0.921875 96:0.921875 97:0.921875 98:0.921875 99:0.921875 100:0.921875 101:0.921875 102:0.921875 103:0.921875 104:0.921875 105:0.921875 106:0.90625 107:0.90625 108:0.90625 109:0.90625 110:0.90625 111:0.90625 112:0.90625 113:0.90625 114:0.90625 115:0.90625 116:0.90625 117:0.90625 118:0.90625 119:0.921875 120:0.9375 121:1 122:1 123:1 124:1 125:1 126:1 127:1 128:1 
-256 147.1450992075275 0 0 0 0 65:1 66:1 67:1 68:0.984375 69:0.984375 70:0.96875 71:0.96875 72:0.96875 73:0.96875 74:0.96875 75:0.96875 76:0.96875 77:0.96875 78:0.953125 79:0.953125 80:0.953125 81:0.953125 82:0.953125 83:0.953125 84:0.953125 85:0.9375 86:0.9375 87:0.9375 88:0.9375 89:0.9375 90:0.9375 91:0.9375 92:0.9375 93:0.9375 94:0.9375 95:0.9375 96:0.921875 97:0.921875 98:0.921875 99:0.921875 100:0.921875 101:0.90625 102:0.90625 103:0.90625 104:0.90625 105:0.921875 106:0.921875 107:0.921875 108:0.90625 109:0.90625 110:0.90625 111:0.90625 112:0.90625 113:0.921875 114:0.921875 115:0.921875 116:0.921875 117:0.90625 118:0.90625 119:0.921875 120:0.9375 121:0.953125 122:1 123:1 124:1 125:1 126:1 127:1 128:1 
-256 0 0 0 0 0 1:1 2:1 3:1 4:1 5:1 6:1 7:1 8:1 9:1 10:1 11:1 12:1 13:1 14:1 15:1 16:1 17:1 18:1 19:1 20:1 21:1 22:1 23:1 24:1 25:1 26:1 27:1 28:1 29:1 30:1 31:1 32:1 33:1 34:1 35:1 36:1 37:1 38:1 39:1 40:1 41:1 42:1 43:1 44:1 45:1 46:1 47:1 48:1 49:1 50:1 51:1 52:1 53:1 54:1 55:1 56:1 57:1 58:1 59:1 60:1 61:1 62:0.828125 63:0.625 64:0.359375 65:1 66:1 67:1 68:1 69:1 70:0.96875 71:0.953125 72:0.953125 73:0.953125 74:0.953125 75:0.953125 76:0.953125 77:0.953125 78:0.953125 79:0.953125 80:0.953125 81:0.953125 82:0.96875 83:0.96875 84:0.96875 85:0.96875 86:0.96875 87:0.96875 88:0.96875 89:0.96875 90:0.96875 91:0.96875 92:0.96875 93:0.96875 94:0.984375 95:0.984375 96:0.984375 97:0.984375 98:0.984375 99:0.984375 100:0.984375 101:0.984375 102:0.984375 103:0.984375 104:0.984375 105:0.984375 106:0.984375 107:0.984375 108:0.984375 109:0.984375 110:0.984375 111:1 112:1 113:1 114:1 115:1 116:1 117:1 118:1 119:1 120:1 121:1 122:1 123:1 124:1 125:1 126:1 127:1 128:1 
-25.26729493271841 0 1.42804060352697 169.6253064356761 21.73482432156556 0 1:1 2:1 3:1 4:1 5:1 6:1 7:1 8:1 9:1 10:1 11:1 12:1 13:1 14:1 15:1 16:1 17:1 18:1 19:1 20:1 21:1 22:1 23:1 24:1 25:1 26:1 27:1 28:1 29:1 30:1 31:1 32:1 33:1 34:1 35:1 36:1 37:1 38:1 39:1 40:1 41:1 42:1 43:1 44:1 45:1 46:1 47:1 48:1 49:1 50:1 51:1 52:1 53:1 54:1 55:1 56:1 57:1 58:1 59:1 60:1 61:1 62:0.84375 63:0.640625 64:0.59375 65:1 66:1 67:1 68:1 69:1 70:1 71:1 72:1 73:1 74:1 75:1 76:1 77:1 78:1 79:1 80:1 81:1 82:1 83:1 84:1 85:1 86:1 87:1 88:1 89:1 90:1 91:1 92:1 93:1 94:1 95:1 96:1 97:1 98:1 99:1 100:0.984375 101:0.984375 102:0.984375 103:0.96875 104:0.96875 105:0.96875 106:0.96875 107:0.96875 108:0.96875 109:0.96875 110:0.96875 111:0.96875 112:0.96875 113:0.96875 114:0.96875 115:0.953125 116:0.953125 117:0.953125 118:0.953125 119:0.953125 120:0.953125 121:0.953125 122:0.953125 123:0.953125 124:0.953125 125:0.96875 126:1 127:1 128:1 
-256 175.7656687941727 78.46789095944054 256 74.30567155569433 70.54245238875653 65:1 66:1 67:1 68:1 69:1 70:1 71:1 72:1 73:0.953125 74:0.953125 75:0.9375 76:0.9375 77:0.9375 78:0.9375 79:0.9375 80:0.9375 81:0.9375 82:0.9375 83:0.9375 84:0.9375 85:0.9375 86:0.9375 87:0.9375 88:0.9375 89:0.9375 90:0.9375 91:0.9375 92:0.9375 93:0.9375 94:0.9375 95:0.9375 96:0.9375 97:0.9375 98:0.9375 99:0.953125 100:0.96875 101:0.9375 102:0.9375 103:0.9375 104:0.9375 105:0.921875 106:0.921875 107:0.921875 108:0.921875 109:0.921875 110:0.921875 111:0.921875 112:0.921875 113:0.921875 114:0.921875 115:0.921875 116:0.921875 117:0.921875 118:0.921875 119:0.921875 120:0.921875 121:0.921875 122:0.921875 123:0.90625 124:0.90625 125:0.921875 126:0.9375 127:1 128:1 
-141.1403772483119 62.15604683877361 26.81375761599816 55.23946801505408 17.56253026427774 11.24028248462411 65:0.4375 66:0.5 67:0.671875 68:0.765625 69:0.9375 70:1 71:1 72:0.953125 73:0.921875 74:0.90625 75:0.90625 76:0.890625 77:0.890625 78:0.890625 79:0.90625 80:0.90625 81:0.90625 82:0.90625 83:0.90625 84:0.90625 85:0.890625 86:0.890625 87:0.890625 88:0.890625 89:0.890625 90:0.90625 91:0.90625 92:0.90625 93:0.90625 94:0.90625 95:0.90625 96:0.90625 97:0.90625 98:0.90625 99:0.921875 100:0.921875 101:0.921875 102:0.921875 103:0.921875 104:0.921875 105:0.921875 106:0.921875 107:0.921875 108:0.9375 109:0.9375 110:0.9375 111:0.9375 112:0.9375 113:0.9375 114:0.9375 115:0.9375 116:0.9375 117:0.9375 118:0.9375 119:0.953125 120:0.953125 121:0.953125 122:0.953125 123:0.953125 124:0.96875 125:1 126:1 127:1 128:1 
-50.56614601456548 -0 198.178784396849 162.903416269109 90.71636026412631 0 1:1 2:1 3:1 4:0.921875 5:0.859375 6:0.828125 7:0.796875 8:0.78125 9:0.765625 10:0.765625 11:0.765625 12:0.765625 13:0.765625 14:0.765625 15:0.78125 16:0.796875 17:0.828125 18:0.859375 19:0.921875 20:1 21:1 22:1 23:1 24:0.953125 25:0.859375 26:0.828125 27:0.796875 28:0.796875 29:0.765625 30:0.765625 31:0.765625 32:0.765625 33:0.765625 34:0.765625 35:0.765625 36:0.796875 37:0.828125 38:0.859375 39:0.890625 40:1 41:1 42:1 43:0.921875 44:0.859375 45:0.828125 46:0.796875 47:0.78125 48:0.78125 49:0.765625 50:0.75 51:0.75 52:0.75 53:0.78125 54:0.78125 55:0.796875 56:0.8125 57:0.859375 58:0.90625 59:1 60:1 61:1 62:1 63:0.578125 64:0.28125 65:1 66:1 67:1 68:1 69:0.984375 70:0.90625 71:0.8125 72:0.78125 73:0.75 74:0.75 75:0.71875 76:0.71875 77:0.71875 78:0.71875 79:0.71875 80:0.734375 81:0.75 82:0.78125 83:0.796875 84:0.84375 85:0.921875 86:0.96875 87:0.984375 88:0.984375 89:0.859375 90:0.8125 91:0.78125 92:0.75 93:0.734375 94:0.734375 95:0.71875 96:0.71875 97:0.71875 98:0.734375 99:0.75 100:0.765625 101:0.796875 102:0.828125 103:0.875 104:0.984375 105:0.984375 106:0.984375 107:0.984375 108:0.859375 109:0.828125 110:0.796875 111:0.765625 112:0.765625 113:0.734375 114:0.734375 115:0.75 116:0.75 117:0.75 118:0.78125 119:0.78125 120:0.8125 121:0.84375 122:0.90625 123:1 124:1 125:1 126:1 127:1 128:1 
-128.6605283480265 -110.1485593002045 0 43.88692171599035 0 0 65:1 66:1 67:1 68:1 69:0.84375 70:0.78125 71:0.765625 72:0.734375 73:0.71875 74:0.703125 75:0.6875 76:0.6875 77:0.6875 78:0.71875 79:0.71875 80:0.75 81:0.78125 82:0.8125 83:0.9375 84:0.9375 85:0.9375 86:0.9375 87:0.828125 88:0.78125 89:0.75 90:0.734375 91:0.703125 92:0.703125 93:0.703125 94:0.703125 95:0.703125 96:0.703125 97:0.703125 98:0.734375 99:0.75 100:0.78125 101:0.828125 102:0.921875 103:0.921875 104:0.921875 105:0.875 106:0.796875 107:0.75 108:0.71875 109:0.703125 110:0.6875 111:0.671875 112:0.671875 113:0.671875 114:0.671875 115:0.6875 116:0.703125 117:0.71875 118:0.734375 119:0.765625 120:0.859375 121:0.984375 122:1 123:1 124:1 125:1 126:1 127:1 128:1 
-0 -0 210.1687909369718 48.39510879556001 149.0121095951067 156.7840944983866 65:1 66:1 67:0.90625 68:0.796875 69:0.765625 70:0.75 71:0.71875 72:0.71875 73:0.703125 74:0.703125 75:0.703125 76:0.703125 77:0.703125 78:0.703125 79:0.734375 80:0.71875 81:0.75 82:0.796875 83:0.859375 84:0.921875 85:0.921875 86:0.921875 87:0.84375 88:0.796875 89:0.734375 90:0.734375 91:0.703125 92:0.703125 93:0.703125 94:0.6875 95:0.703125 96:0.703125 97:0.71875 98:0.703125 99:0.71875 100:0.75 101:0.78125 102:0.8125 103:0.921875 104:0.90625 105:0.90625 106:0.90625 107:0.8125 108:0.765625 109:0.734375 110:0.71875 111:0.703125 112:0.6875 113:0.6875 114:0.65625 115:0.65625 116:0.671875 117:0.671875 118:0.671875 119:0.703125 120:0.71875 121:0.75 122:0.8125 123:0.953125 124:1 125:1 126:1 127:1 128:1 
-0 -0 256 0 46.29355041756652 31.96038469919459 65:1 66:1 67:1 68:1 69:1 70:0.953125 71:0.921875 72:0.828125 73:0.765625 74:0.734375 75:0.71875 76:0.71875 77:0.703125 78:0.703125 79:0.703125 80:0.6875 81:0.6875 82:0.6875 83:0.6875 84:0.71875 85:0.71875 86:0.734375 87:0.78125 88:0.84375 89:0.921875 90:0.921875 91:0.828125 92:0.765625 93:0.734375 94:0.734375 95:0.71875 96:0.71875 97:0.703125 98:0.703125 99:0.6875 100:0.6875 101:0.703125 102:0.71875 103:0.734375 104:0.75 105:0.765625 106:0.796875 107:0.90625 108:0.953125 109:0.953125 110:0.84375 111:0.796875 112:0.765625 113:0.75 114:0.734375 115:0.71875 116:0.71875 117:0.71875 118:0.71875 119:0.734375 120:0.734375 121:0.734375 122:0.765625 123:0.78125 124:0.8125 125:0.875 126:1 127:1 128:1 
-172.2207678910008 -77.74277213469391 0 256 0 0 65:1 66:1 67:1 68:1 69:0.953125 70:0.84375 71:0.796875 72:0.765625 73:0.75 74:0.71875 75:0.71875 76:0.71875 77:0.71875 78:0.71875 79:0.71875 80:0.75 81:0.75 82:0.78125 83:0.8125 84:0.875 85:0.953125 86:0.953125 87:0.953125 88:0.90625 89:0.8125 90:0.78125 91:0.75 92:0.75 93:0.71875 94:0.71875 95:0.71875 96:0.71875 97:0.71875 98:0.71875 99:0.71875 100:0.75 101:0.765625 102:0.796875 103:0.84375 104:0.953125 105:0.953125 106:0.953125 107:0.890625 108:0.8125 109:0.78125 110:0.75 111:0.71875 112:0.71875 113:0.703125 114:0.6875 115:0.6875 116:0.6875 117:0.703125 118:0.71875 119:0.71875 120:0.75 121:0.78125 122:0.828125 123:0.953125 124:1 125:1 126:1 127:1 128:1 
-0 -0 0 153.9381749695412 43.89511747662619 0 65:1 66:1 67:1 68:1 69:1 70:1 71:0.96875 72:0.9375 73:0.921875 74:0.828125 75:0.75 76:0.734375 77:0.71875 78:0.703125 79:0.71875 80:0.703125 81:0.703125 82:0.703125 83:0.703125 84:0.703125 85:0.703125 86:0.71875 87:0.71875 88:0.78125 89:0.8125 90:0.953125 91:0.953125 92:0.953125 93:0.84375 94:0.796875 95:0.765625 96:0.75 97:0.734375 98:0.734375 99:0.71875 100:0.71875 101:0.71875 102:0.71875 103:0.71875 104:0.75 105:0.75 106:0.78125 107:0.8125 108:0.875 109:0.96875 110:0.96875 111:0.890625 112:0.828125 113:0.796875 114:0.78125 115:0.765625 116:0.734375 117:0.734375 118:0.734375 119:0.734375 120:0.734375 121:0.75 122:0.765625 123:0.796875 124:0.8125 125:0.84375 126:0.90625 127:1 128:1 
-57.59719726427053 -141.5903582667467 0 109.7160938921177 0 0.3259280039520436 1:0.984375 2:1 3:1 4:1 5:0.9375 6:0.875 7:0.84375 8:0.828125 9:0.828125 10:0.8125 11:0.8125 12:0.8125 13:0.828125 14:0.828125 15:0.828125 16:0.859375 17:0.890625 18:0.984375 19:1 20:1 21:1 22:0.984375 23:0.890625 24:0.859375 25:0.828125 26:0.828125 27:0.8125 28:0.8125 29:0.8125 30:0.8125 31:0.8125 32:0.828125 33:0.84375 34:0.875 35:0.90625 36:1 37:1 38:1 39:1 40:1 41:0.890625 42:0.859375 43:0.828125 44:0.828125 45:0.8125 46:0.796875 47:0.796875 48:0.796875 49:0.8125 50:0.828125 51:0.828125 52:0.859375 53:0.890625 54:0.96875 55:1 56:1 57:1 58:1 59:1 60:0.859375 61:0.53125 62:0.328125 63:0.28125 64:0.390625 65:0.984375 66:1 67:1 68:1 69:1 70:1 71:1 72:1 73:1 74:1 75:1 76:1 77:1 78:1 79:0.921875 80:0.796875 81:0.765625 82:0.734375 83:0.734375 84:0.71875 85:0.703125 86:0.703125 87:0.71875 88:0.71875 89:0.78125 90:0.8125 91:0.875 92:0.9375 93:0.9375 94:0.9375 95:0.9375 96:0.9375 97:0.9375 98:0.8125 99:0.78125 100:0.75 101:0.734375 102:0.734375 103:0.71875 104:0.734375 105:0.734375 106:0.734375 107:0.765625 108:0.796875 109:0.875 110:0.953125 111:0.953125 112:0.953125 113:0.953125 114:0.90625 115:0.8125 116:0.78125 117:0.765625 118:0.75 119:0.75 120:0.734375 121:0.75 122:0.78125 123:0.78125 124:0.8125 125:0.84375 126:1 127:1 128:1 
-256 -184.4386311248929 0 0 0 0 65:1 66:1 67:1 68:1 69:1 70:1 71:1 72:1 73:1 74:1 75:1 76:1 77:1 78:0.953125 79:0.796875 80:0.765625 81:0.75 82:0.734375 83:0.71875 84:0.71875 85:0.71875 86:0.734375 87:0.734375 88:0.734375 89:0.75 90:0.765625 91:0.78125 92:0.84375 93:0.921875 94:0.921875 95:0.84375 96:0.78125 97:0.765625 98:0.734375 99:0.703125 100:0.734375 101:0.765625 102:0.765625 103:0.75 104:0.734375 105:0.71875 106:0.75 107:0.796875 108:0.859375 109:0.9375 110:0.9375 111:0.9375 112:0.828125 113:0.796875 114:0.765625 115:0.75 116:0.734375 117:0.734375 118:0.734375 119:0.734375 120:0.734375 121:0.75 122:0.78125 123:0.8125 124:0.859375 125:0.96875 126:1 127:1 128:1 
-0 -0 -0 0 114.5595038959491 1.274688475290152 1:1 2:0.921875 3:0.859375 4:0.828125 5:0.796875 6:0.71875 7:0.640625 8:0.578125 9:0.546875 10:0.53125 11:0.515625 12:0.53125 13:0.546875 14:0.5625 15:0.59375 16:0.625 17:0.703125 18:0.796875 19:0.8125 20:0.875 21:0.9375 22:1 23:1 24:0.921875 25:0.859375 26:0.828125 27:0.796875 28:0.765625 29:0.765625 30:0.765625 31:0.75 32:0.75 33:0.75 34:0.765625 35:0.78125 36:0.796875 37:0.8125 38:0.859375 39:0.921875 40:1 41:0.90625 42:0.859375 43:0.828125 44:0.796875 45:0.78125 46:0.671875 47:0.609375 48:0.578125 49:0.5625 50:0.546875 51:0.53125 52:0.53125 53:0.546875 54:0.578125 55:0.640625 56:0.6875 57:0.78125 58:0.796875 59:0.828125 60:0.875 61:0.828125 62:0.765625 63:0.65625 64:0.59375 65:1 66:1 67:1 68:0.953125 69:0.828125 70:0.703125 71:0.609375 72:0.5625 73:0.5 74:0.484375 75:0.453125 76:0.453125 77:0.453125 78:0.453125 79:0.46875 80:0.5 81:0.546875 82:0.59375 83:0.6875 84:0.828125 85:0.90625 86:0.96875 87:0.96875 88:0.875 89:0.828125 90:0.796875 91:0.78125 92:0.765625 93:0.75 94:0.75 95:0.75 96:0.75 97:0.75 98:0.765625 99:0.78125 100:0.796875 101:0.828125 102:0.859375 103:0.9375 104:1 105:1 106:0.953125 107:0.875 108:0.71875 109:0.625 110:0.609375 111:0.5625 112:0.546875 113:0.515625 114:0.5 115:0.5 116:0.5 117:0.546875 118:0.5625 119:0.609375 120:0.671875 121:0.71875 122:0.890625 123:1 124:1 125:1 126:1 127:1 128:1 
-0 -1.630201821903393 -91.57772251343644 73.62436104692608 0 0 1:0.96875 2:0.921875 3:0.859375 4:0.765625 5:0.65625 6:0.625 7:0.5625 8:0.546875 9:0.546875 10:0.53125 11:0.53125 12:0.546875 13:0.5625 14:0.609375 15:0.640625 16:0.734375 17:0.859375 18:0.890625 19:1 20:1 21:1 22:0.96875 23:0.890625 24:0.828125 25:0.828125 26:0.796875 27:0.796875 28:0.765625 29:0.765625 30:0.765625 31:0.765625 32:0.78125 33:0.796875 34:0.8125 35:0.84375 36:0.890625 37:1 38:1 39:1 40:1 41:0.90625 42:0.84375 43:0.703125 44:0.671875 45:0.609375 46:0.578125 47:0.5625 48:0.5625 49:0.5625 50:0.5625 51:0.578125 52:0.59375 53:0.625 54:0.6875 55:0.78125 56:0.875 57:0.953125 58:1 59:1 60:1 61:1 62:0.671875 63:0.296875 64:0.1875 65:1 66:1 67:1 68:1 69:0.9375 70:0.75 71:0.671875 72:0.609375 73:0.546875 74:0.53125 75:0.515625 76:0.5 77:0.5 78:0.5 79:0.53125 80:0.546875 81:0.609375 82:0.671875 83:0.75 84:0.96875 85:0.96875 86:0.96875 87:0.96875 88:0.890625 89:0.828125 90:0.78125 91:0.78125 92:0.75 93:0.765625 94:0.765625 95:0.75 96:0.734375 97:0.75 98:0.75 99:0.78125 100:0.78125 101:0.828125 102:0.890625 103:0.953125 104:0.953125 105:0.859375 106:0.796875 107:0.65625 108:0.578125 109:0.53125 110:0.515625 111:0.484375 112:0.46875 113:0.46875 114:0.484375 115:0.53125 116:0.53125 117:0.59375 118:0.625 119:0.71875 120:0.859375 121:0.984375 122:1 123:1 124:1 125:1 126:1 127:1 128:1 
-83.1553477064715 -61.73742467897762 -256 167.2312261342109 256 101.4045722309687 65:1 66:1 67:1 68:1 69:0.953125 70:0.75 71:0.640625 72:0.5625 73:0.515625 74:0.484375 75:0.453125 76:0.453125 77:0.453125 78:0.453125 79:0.46875 80:0.484375 81:0.5 82:0.578125 83:0.640625 84:0.75 85:0.953125 86:0.953125 87:0.953125 88:0.875 89:0.8125 90:0.78125 91:0.75 92:0.75 93:0.734375 94:0.734375 95:0.734375 96:0.734375 97:0.75 98:0.734375 99:0.75 100:0.765625 101:0.796875 102:0.859375 103:0.953125 104:0.953125 105:0.953125 106:0.953125 107:0.84375 108:0.703125 109:0.640625 110:0.59375 111:0.546875 112:0.5 113:0.484375 114:0.484375 115:0.484375 116:0.484375 117:0.5 118:0.546875 119:0.59375 120:0.6875 121:0.796875 122:0.921875 123:1 124:1 125:1 126:1 127:1 128:1 
-0 -0 -0 0 13.44745009721464 0 1:1 2:1 3:1 4:0.875 5:0.828125 6:0.796875 7:0.78125 8:0.671875 9:0.609375 10:0.578125 11:0.5625 12:0.546875 13:0.53125 14:0.546875 15:0.578125 16:0.578125 17:0.640625 18:0.734375 19:0.8125 20:0.8125 21:0.859375 22:0.921875 23:1 24:1 25:0.9375 26:0.875 27:0.828125 28:0.796875 29:0.78125 30:0.765625 31:0.765625 32:0.765625 33:0.765625 34:0.765625 35:0.765625 36:0.78125 37:0.8125 38:0.84375 39:0.875 40:0.96875 41:1 42:0.921875 43:0.859375 44:0.828125 45:0.796875 46:0.71875 47:0.640625 48:0.578125 49:0.546875 50:0.53125 51:0.515625 52:0.546875 53:0.546875 54:0.546875 55:0.59375 56:0.640625 57:0.765625 58:0.8125 59:0.828125 60:0.875 61:0.953125 62:1 63:0.796875 64:0.671875 65:1 66:1 67:1 68:1 69:1 70:0.890625 71:0.734375 72:0.65625 73:0.609375 74:0.578125 75:0.546875 76:0.53125 77:0.515625 78:0.515625 79:0.546875 80:0.546875 81:0.59375 82:0.609375 83:0.671875 84:0.765625 85:0.890625 86:1 87:1 88:1 89:0.890625 90:0.84375 91:0.8125 92:0.796875 93:0.78125 94:0.78125 95:0.75 96:0.75 97:0.765625 98:0.765625 99:0.78125 100:0.796875 101:0.828125 102:0.859375 103:0.890625 104:0.984375 105:0.984375 106:0.984375 107:0.875 108:0.75 109:0.65625 110:0.609375 111:0.578125 112:0.515625 113:0.515625 114:0.5 115:0.5 116:0.515625 117:0.515625 118:0.53125 119:0.5625 120:0.625 121:0.6875 122:0.828125 123:0.890625 124:0.96875 125:1 126:1 127:1 128:1 
-0 -0 -0 0 168.9890544338907 256 65:1 66:1 67:1 68:1 69:1 70:0.90625 71:0.84375 72:0.796875 73:0.640625 74:0.546875 75:0.515625 76:0.5 77:0.484375 78:0.46875 79:0.46875 80:0.484375 81:0.46875 82:0.5 83:0.53125 84:0.578125 85:0.6875 86:0.78125 87:0.84375 88:0.921875 89:0.921875 90:0.921875 91:0.8125 92:0.78125 93:0.75 94:0.71875 95:0.71875 96:0.703125 97:0.703125 98:0.71875 99:0.71875 100:0.71875 101:0.734375 102:0.734375 103:0.75 104:0.765625 105:0.8125 106:0.921875 107:0.9375 108:0.90625 109:0.8125 110:0.765625 111:0.671875 112:0.578125 113:0.515625 114:0.484375 115:0.484375 116:0.453125 117:0.453125 118:0.453125 119:0.453125 120:0.46875 121:0.515625 122:0.53125 123:0.59375 124:0.6875 125:0.765625 126:0.875 127:0.96875 128:1 
-35.97782667128482 -35.80730852185501 -192.2676649617802 87.62424166442973 256 37.93793589536021 65:1 66:1 67:1 68:1 69:1 70:1 71:1 72:0.953125 73:0.828125 74:0.703125 75:0.625 76:0.59375 77:0.53125 78:0.53125 79:0.53125 80:0.5 81:0.5 82:0.53125 83:0.53125 84:0.5625 85:0.625 86:0.671875 87:0.75 88:0.890625 89:0.96875 90:0.96875 91:0.96875 92:0.859375 93:0.8125 94:0.765625 95:0.734375 96:0.734375 97:0.734375 98:0.734375 99:0.734375 100:0.734375 101:0.734375 102:0.75 103:0.75 104:0.78125 105:0.8125 106:0.890625 107:0.9375 108:0.9375 109:0.875 110:0.8125 111:0.703125 112:0.625 113:0.5625 114:0.515625 115:0.453125 116:0.453125 117:0.4375 118:0.4375 119:0.453125 120:0.46875 121:0.515625 122:0.578125 123:0.671875 124:0.796875 125:0.875 126:1 127:1 128:1 
-40.42204255245509 -39.65001796199004 -124.502187858604 116.174532437282 186.8113723877667 73.4384695400479 1:1 2:1 3:1 4:0.953125 5:0.890625 6:0.859375 7:0.71875 8:0.65625 9:0.625 10:0.59375 11:0.578125 12:0.578125 13:0.5625 14:0.578125 15:0.578125 16:0.609375 17:0.65625 18:0.6875 19:0.78125 20:0.875 21:0.9375 22:1 23:1 24:1 25:0.9375 26:0.875 27:0.84375 28:0.8125 29:0.8125 30:0.796875 31:0.78125 32:0.78125 33:0.796875 34:0.796875 35:0.796875 36:0.828125 37:0.828125 38:0.859375 39:0.90625 40:1 41:1 42:1 43:0.96875 44:0.890625 45:0.84375 46:0.75 47:0.671875 48:0.625 49:0.625 50:0.59375 51:0.59375 52:0.578125 53:0.578125 54:0.59375 55:0.609375 56:0.65625 57:0.703125 58:0.828125 59:0.84375 60:0.890625 61:0.96875 62:1 63:0.859375 64:0.6875 65:1 66:1 67:1 68:1 69:1 70:1 71:1 72:1 73:1 74:1 75:1 76:1 77:0.953125 78:0.796875 79:0.703125 80:0.609375 81:0.5625 82:0.546875 83:0.53125 84:0.515625 85:0.515625 86:0.546875 87:0.546875 88:0.609375 89:0.640625 90:0.71875 91:0.890625 92:1 93:1 94:1 95:0.90625 96:0.84375 97:0.8125 98:0.78125 99:0.78125 100:0.765625 101:0.765625 102:0.765625 103:0.765625 104:0.796875 105:0.796875 106:0.8125 107:0.859375 108:0.953125 109:0.984375 110:0.984375 111:0.9375 112:0.734375 113:0.65625 114:0.59375 115:0.546875 116:0.515625 117:0.5 118:0.484375 119:0.484375 120:0.53125 121:0.53125 122:0.59375 123:0.640625 124:0.734375 125:0.984375 126:1 127:1 128:1 
-3.179081091087715 -24.97967066949141 -0 -0 25.04336215531767 0 1:1 2:0.9375 3:0.875 4:0.828125 5:0.8125 6:0.78125 7:0.765625 8:0.765625 9:0.75 10:0.75 11:0.765625 12:0.765625 13:0.765625 14:0.796875 15:0.828125 16:0.859375 17:0.90625 18:1 19:1 20:1 21:1 22:1 23:1 24:1 25:1 26:1 27:1 28:1 29:1 30:1 31:1 32:1 33:1 34:1 35:1 36:1 37:1 38:1 39:1 40:1 41:1 42:1 43:1 44:0.890625 45:0.84375 46:0.8125 47:0.796875 48:0.765625 49:0.765625 50:0.75 51:0.75 52:0.75 53:0.765625 54:0.765625 55:0.78125 56:0.796875 57:0.828125 58:0.859375 59:0.953125 60:1 61:1 62:1 63:0.671875 64:0.265625 65:1 66:1 67:1 68:1 69:0.890625 70:0.84375 71:0.8125 72:0.78125 73:0.765625 74:0.765625 75:0.734375 76:0.734375 77:0.734375 78:0.75 79:0.75 80:0.765625 81:0.78125 82:0.8125 83:0.859375 84:0.9375 85:0.984375 86:0.984375 87:0.984375 88:0.984375 89:0.984375 90:0.984375 91:0.984375 92:0.984375 93:0.984375 94:0.984375 95:0.984375 96:0.984375 97:0.984375 98:0.984375 99:0.984375 100:0.984375 101:0.96875 102:0.96875 103:0.96875 104:0.96875 105:0.96875 106:0.859375 107:0.828125 108:0.78125 109:0.765625 110:0.734375 111:0.734375 112:0.71875 113:0.71875 114:0.71875 115:0.71875 116:0.75 117:0.75 118:0.78125 119:0.8125 120:0.84375 121:0.9375 122:1 123:1 124:1 125:1 126:1 127:1 128:1 
-154.6072588096517 -38.46319748479544 -256 -256 256 225.3802563742989 65:1 66:1 67:1 68:1 69:0.9375 70:0.828125 71:0.78125 72:0.734375 73:0.734375 74:0.71875 75:0.6875 76:0.6875 77:0.6875 78:0.6875 79:0.703125 80:0.71875 81:0.75 82:0.78125 83:0.796875 84:0.828125 85:0.9375 86:0.9375 87:0.9375 88:0.9375 89:0.9375 90:0.9375 91:0.9375 92:0.9375 93:0.9375 94:0.9375 95:0.9375 96:0.9375 97:0.9375 98:0.9375 99:0.9375 100:0.9375 101:0.9375 102:0.9375 103:0.921875 104:0.921875 105:0.921875 106:0.921875 107:0.921875 108:0.828125 109:0.765625 110:0.734375 111:0.71875 112:0.6875 113:0.6875 114:0.671875 115:0.65625 116:0.65625 117:0.671875 118:0.671875 119:0.671875 120:0.703125 121:0.734375 122:0.796875 123:0.875 124:1 125:1 126:1 127:1 128:1 
-64.62470993603286 -256 -256 -20.23104978024472 53.04302134813912 0 65:1 66:1 67:1 68:0.90625 69:0.859375 70:0.828125 71:0.796875 72:0.75 73:0.75 74:0.75 75:0.75 76:0.75 77:0.75 78:0.75 79:0.734375 80:0.75 81:0.765625 82:0.796875 83:0.84375 84:0.9375 85:0.96875 86:0.96875 87:0.96875 88:0.96875 89:0.96875 90:0.96875 91:0.96875 92:0.96875 93:0.96875 94:0.96875 95:0.96875 96:0.96875 97:0.984375 98:1 99:0.984375 100:0.96875 101:0.96875 102:0.953125 103:0.953125 104:0.953125 105:0.953125 106:0.953125 107:0.953125 108:0.921875 109:0.828125 110:0.796875 111:0.75 112:0.71875 113:0.71875 114:0.6875 115:0.6875 116:0.6875 117:0.6875 118:0.6875 119:0.703125 120:0.71875 121:0.734375 122:0.765625 123:0.796875 124:0.84375 125:0.953125 126:1 127:1 128:1 
-0 -0 -0 -0 147.7893802928703 4.408696630667651 1:1 2:1 3:0.953125 4:0.875 5:0.8125 6:0.796875 7:0.78125 8:0.765625 9:0.765625 10:0.75 11:0.765625 12:0.765625 13:0.765625 14:0.796875 15:0.796875 16:0.828125 17:0.890625 18:1 19:1 20:1 21:1 22:1 23:1 24:1 25:1 26:1 27:1 28:1 29:1 30:1 31:1 32:1 33:1 34:1 35:1 36:1 37:1 38:1 39:1 40:1 41:1 42:1 43:1 44:0.90625 45:0.84375 46:0.8125 47:0.78125 48:0.765625 49:0.765625 50:0.765625 51:0.765625 52:0.765625 53:0.765625 54:0.765625 55:0.78125 56:0.796875 57:0.828125 58:0.875 59:0.953125 60:0.828125 61:0.6875 62:0.59375 63:0.328125 64:0.1875 65:1 66:1 67:1 68:1 69:1 70:1 71:1 72:0.875 73:0.84375 74:0.796875 75:0.765625 76:0.765625 77:0.75 78:0.734375 79:0.734375 80:0.734375 81:0.75 82:0.75 83:0.765625 84:0.765625 85:0.796875 86:0.84375 87:0.96875 88:0.96875 89:0.96875 90:0.96875 91:0.96875 92:0.96875 93:0.96875 94:0.96875 95:0.96875 96:0.96875 97:0.96875 98:0.96875 99:0.96875 100:0.96875 101:0.953125 102:0.953125 103:0.953125 104:0.953125 105:0.953125 106:0.9375 107:0.9375 108:0.84375 109:0.78125 110:0.75 111:0.75 112:0.71875 113:0.71875 114:0.71875 115:0.6875 116:0.6875 117:0.6875 118:0.703125 119:0.71875 120:0.734375 121:0.75 122:0.8125 123:0.90625 124:0.921875 125:0.921875 126:0.984375 127:1 128:1 
-75.33653128137954 -158.6893428275371 -21.85494161023941 -0 31.19580009031125 0 1:1 2:1 3:1 4:1 5:1 6:1 7:1 8:0.90625 9:0.84375 10:0.796875 11:0.78125 12:0.78125 13:0.765625 14:0.765625 15:0.765625 16:0.765625 17:0.765625 18:0.78125 19:0.78125 20:0.796875 21:0.84375 22:0.90625 23:1 24:1 25:1 26:1 27:1 28:1 29:1 30:1 31:1 32:1 33:1 34:1 35:1 36:1 37:1 38:1 39:1 40:1 41:1 42:1 43:1 44:1 45:0.90625 46:0.84375 47:0.8125 48:0.796875 49:0.78125 50:0.765625 51:0.75 52:0.75 53:0.75 54:0.765625 55:0.78125 56:0.796875 57:0.828125 58:0.875 59:0.9375 60:1 61:1 62:1 63:1 64:0.796875 65:1 66:1 67:1 68:1 69:1 70:1 71:1 72:1 73:1 74:0.90625 75:0.84375 76:0.8125 77:0.796875 78:0.78125 79:0.765625 80:0.75 81:0.75 82:0.75 83:0.75 84:0.765625 85:0.78125 86:0.796875 87:0.84375 88:0.890625 89:0.953125 90:1 91:1 92:1 93:1 94:1 95:1 96:1 97:1 98:1 99:1 100:1 101:1 102:1 103:1 104:1 105:1 106:1 107:1 108:1 109:1 110:1 111:1 112:1 113:1 114:0.921875 115:0.859375 116:0.828125 117:0.796875 118:0.796875 119:0.765625 120:0.765625 121:0.765625 122:0.765625 123:0.765625 124:0.765625 125:0.796875 126:0.796875 127:0.828125 128:0.828125 
-5.877587665279662 -4.057337944699555 -240.9847740320788 -168.423311502604 48.69774085772055 0 1:1 2:1 3:0.953125 4:0.875 5:0.828125 6:0.796875 7:0.78125 8:0.765625 9:0.765625 10:0.765625 11:0.765625 12:0.765625 13:0.765625 14:0.765625 15:0.796875 16:0.828125 17:0.859375 18:0.921875 19:1 20:1 21:1 22:1 23:1 24:1 25:1 26:1 27:1 28:1 29:1 30:1 31:1 32:1 33:1 34:1 35:1 36:1 37:1 38:1 39:1 40:1 41:1 42:1 43:1 44:1 45:0.9375 46:0.875 47:0.828125 48:0.796875 49:0.78125 50:0.765625 51:0.765625 52:0.765625 53:0.765625 54:0.765625 55:0.765625 56:0.765625 57:0.796875 58:0.8125 59:0.84375 60:0.84375 61:0.859375 62:0.609375 63:0.46875 64:0.296875 65:1 66:1 67:1 68:1 69:1 70:1 71:1 72:1 73:0.890625 74:0.828125 75:0.796875 76:0.796875 77:0.765625 78:0.765625 79:0.734375 80:0.734375 81:0.734375 82:0.734375 83:0.75 84:0.765625 85:0.796875 86:0.828125 87:0.859375 88:0.984375 89:0.984375 90:0.984375 91:0.984375 92:0.96875 93:0.96875 94:0.953125 95:0.9375 96:0.921875 97:0.921875 98:0.921875 99:0.9375 100:0.9375 101:0.953125 102:0.953125 103:0.96875 104:0.96875 105:0.96875 106:0.96875 107:0.96875 108:0.859375 109:0.796875 110:0.765625 111:0.75 112:0.734375 113:0.71875 114:0.703125 115:0.703125 116:0.703125 117:0.71875 118:0.734375 119:0.734375 120:0.765625 121:0.796875 122:0.8125 123:0.953125 124:0.953125 125:0.96875 126:1 127:1 128:1 
-80.10089283756363 -79.58101827710772 -200.0816767545104 -256 -238.5441189697873 12.92719237850833 65:1 66:1 67:1 68:1 69:0.921875 70:0.78125 71:0.65625 72:0.578125 73:0.515625 74:0.46875 75:0.4375 76:0.4375 77:0.421875 78:0.421875 79:0.4375 80:0.46875 81:0.484375 82:0.5625 83:0.609375 84:0.703125 85:0.859375 86:0.9375 87:0.9375 88:0.9375 89:0.9375 90:0.9375 91:0.9375 92:0.9375 93:0.9375 94:0.953125 95:0.953125 96:0.953125 97:0.953125 98:0.953125 99:0.9375 100:0.9375 101:0.9375 102:0.9375 103:0.9375 104:0.9375 105:0.9375 106:0.9375 107:0.78125 108:0.65625 109:0.59375 110:0.5625 111:0.515625 112:0.5 113:0.484375 114:0.484375 115:0.484375 116:0.484375 117:0.484375 118:0.515625 119:0.546875 120:0.609375 121:0.6875 122:0.828125 123:1 124:1 125:1 126:1 127:1 128:1 
-0 -0 -17.43364058941842 -91.65640416195501 -111.7670962055717 0 1:0.921875 2:0.890625 3:0.84375 4:0.765625 5:0.671875 6:0.59375 7:0.5625 8:0.546875 9:0.53125 10:0.515625 11:0.515625 12:0.53125 13:0.578125 14:0.59375 15:0.640625 16:0.734375 17:0.828125 18:0.875 19:0.96875 20:1 21:1 22:1 23:1 24:1 25:1 26:1 27:1 28:1 29:1 30:1 31:1 32:1 33:1 34:1 35:1 36:1 37:1 38:1 39:1 40:0.96875 41:0.859375 42:0.828125 43:0.796875 44:0.671875 45:0.609375 46:0.578125 47:0.53125 48:0.515625 49:0.5 50:0.515625 51:0.515625 52:0.5625 53:0.59375 54:0.625 55:0.734375 56:0.8125 57:0.84375 58:0.890625 59:1 60:1 61:0.90625 62:0.703125 63:0.484375 64:0.28125 65:1 66:1 67:0.890625 68:0.828125 69:0.703125 70:0.640625 71:0.59375 72:0.578125 73:0.53125 74:0.515625 75:0.53125 76:0.546875 77:0.546875 78:0.546875 79:0.5625 80:0.625 81:0.671875 82:0.78125 83:0.859375 84:0.921875 85:0.984375 86:0.984375 87:0.984375 88:0.984375 89:0.984375 90:0.984375 91:0.96875 92:0.96875 93:0.96875 94:0.96875 95:0.96875 96:0.96875 97:0.96875 98:0.96875 99:0.96875 100:0.96875 101:0.96875 102:0.96875 103:0.96875 104:0.96875 105:0.953125 106:0.84375 107:0.75 108:0.65625 109:0.578125 110:0.53125 111:0.484375 112:0.484375 113:0.46875 114:0.46875 115:0.46875 116:0.484375 117:0.53125 118:0.53125 119:0.59375 120:0.671875 121:0.796875 122:0.84375 123:0.953125 124:1 125:1 126:1 127:1 128:1 
-0 -0 -0 -55.83959976962633 -0 256 65:1 66:1 67:1 68:0.984375 69:0.9375 70:0.8125 71:0.75 72:0.59375 73:0.5625 74:0.484375 75:0.46875 76:0.4375 77:0.4375 78:0.4375 79:0.4375 80:0.453125 81:0.46875 82:0.5 83:0.515625 84:0.578125 85:0.671875 86:0.78125 87:0.828125 88:0.9375 89:0.9375 90:0.9375 91:0.9375 92:0.9375 93:0.9375 94:0.9375 95:0.9375 96:0.9375 97:0.9375 98:0.9375 99:0.953125 100:0.953125 101:0.953125 102:0.953125 103:0.953125 104:0.953125 105:0.953125 106:0.953125 107:0.953125 108:0.953125 109:0.859375 110:0.734375 111:0.65625 112:0.578125 113:0.5625 114:0.515625 115:0.5 116:0.46875 117:0.46875 118:0.484375 119:0.5 120:0.5 121:0.53125 122:0.609375 123:0.640625 124:0.765625 125:0.890625 126:1 127:1 128:1 
-0 -0 -0 -0 -0 22.00404488117393 1:1 2:1 3:1 4:0.90625 5:0.75 6:0.65625 7:0.609375 8:0.5625 9:0.53125 10:0.5 11:0.5 12:0.5 13:0.5 14:0.546875 15:0.5625 16:0.609375 17:0.65625 18:0.734375 19:0.921875 20:1 21:1 22:1 23:1 24:1 25:1 26:1 27:1 28:1 29:1 30:1 31:1 32:1 33:1 34:1 35:1 36:1 37:1 38:1 39:1 40:1 41:1 42:1 43:0.84375 44:0.703125 45:0.640625 46:0.578125 47:0.5625 48:0.53125 49:0.515625 50:0.5 51:0.5 52:0.53125 53:0.546875 54:0.578125 55:0.625 56:0.703125 57:0.796875 58:0.921875 59:1 60:1 61:1 62:1 63:0.3125 64:0.171875 65:1 66:1 67:1 68:1 69:1 70:0.859375 71:0.703125 72:0.640625 73:0.59375 74:0.546875 75:0.53125 76:0.515625 77:0.484375 78:0.5 79:0.515625 80:0.53125 81:0.546875 82:0.59375 83:0.640625 84:0.71875 85:0.84375 86:0.96875 87:0.96875 88:0.96875 89:0.96875 90:0.96875 91:0.96875 92:0.96875 93:0.96875 94:0.96875 95:0.984375 96:0.984375 97:0.984375 98:0.96875 99:0.96875 100:0.96875 101:0.96875 102:0.96875 103:0.96875 104:0.96875 105:0.96875 106:0.96875 107:0.96875 108:0.8125 109:0.6875 110:0.609375 111:0.5625 112:0.53125 113:0.515625 114:0.46875 115:0.46875 116:0.46875 117:0.46875 118:0.546875 119:0.546875 120:0.59375 121:0.640625 122:0.703125 123:0.859375 124:1 125:1 126:1 127:1 128:1 
-0 -4.066367961035517 -35.74415944754068 -256 -50.12609090176608 256 65:1 66:1 67:1 68:1 69:1 70:1 71:0.859375 72:0.75 73:0.625 74:0.546875 75:0.5 76:0.46875 77:0.46875 78:0.46875 79:0.46875 80:0.46875 81:0.484375 82:0.5 83:0.515625 84:0.5625 85:0.640625 86:0.78125 87:0.828125 88:0.9375 89:0.921875 90:0.921875 91:0.921875 92:0.921875 93:0.921875 94:0.921875 95:0.953125 96:0.953125 97:0.96875 98:0.96875 99:0.9375 100:0.9375 101:0.9375 102:0.9375 103:0.9375 104:0.9375 105:0.9375 106:0.9375 107:0.9375 108:0.9375 109:0.875 110:0.8125 111:0.671875 112:0.59375 113:0.578125 114:0.515625 115:0.5 116:0.46875 117:0.4375 118:0.4375 119:0.453125 120:0.46875 121:0.5 122:0.546875 123:0.59375 124:0.671875 125:0.84375 126:0.90625 127:1 128:1 
-0 -0 -0 -131.9217567109684 -0 256 65:1 66:1 67:1 68:1 69:1 70:1 71:0.90625 72:0.84375 73:0.8125 74:0.65625 75:0.5625 76:0.5 77:0.484375 78:0.453125 79:0.453125 80:0.4375 81:0.46875 82:0.484375 83:0.515625 84:0.5625 85:0.609375 86:0.6875 87:0.796875 88:0.84375 89:0.9375 90:0.9375 91:0.9375 92:0.9375 93:0.9375 94:0.9375 95:0.9375 96:0.9375 97:0.953125 98:0.953125 99:1 100:1 101:0.984375 102:0.953125 103:0.9375 104:0.9375 105:0.921875 106:0.921875 107:0.921875 108:0.828125 109:0.78125 110:0.6875 111:0.59375 112:0.53125 113:0.5 114:0.484375 115:0.453125 116:0.453125 117:0.453125 118:0.453125 119:0.484375 120:0.484375 121:0.515625 122:0.578125 123:0.6875 124:0.8125 125:0.9375 126:1 127:1 128:1 
-40.62016189272563 -53.09485810102974 -76.65766096195621 -204.3896201722713 -161.3319986672337 69.51278739167837 1:1 2:1 3:1 4:0.9375 5:0.875 6:0.859375 7:0.828125 8:0.734375 9:0.671875 10:0.640625 11:0.59375 12:0.5625 13:0.5625 14:0.5625 15:0.59375 16:0.578125 17:0.609375 18:0.671875 19:0.734375 20:0.796875 21:0.828125 22:0.875 23:0.9375 24:1 25:1 26:1 27:1 28:1 29:1 30:1 31:1 32:1 33:1 34:1 35:1 36:1 37:1 38:1 39:1 40:1 41:1 42:1 43:1 44:0.90625 45:0.875 46:0.84375 47:0.8125 48:0.71875 49:0.65625 50:0.625 51:0.609375 52:0.59375 53:0.59375 54:0.59375 55:0.578125 56:0.625 57:0.65625 58:0.703125 59:0.8125 60:0.84375 61:0.859375 62:0.90625 63:1 64:0.828125 65:1 66:1 67:1 68:1 69:1 70:1 71:1 72:1 73:1 74:1 75:1 76:0.96875 77:0.859375 78:0.78125 79:0.671875 80:0.59375 81:0.5625 82:0.53125 83:0.515625 84:0.515625 85:0.53125 86:0.546875 87:0.5625 88:0.59375 89:0.65625 90:0.75 91:0.875 92:0.96875 93:1 94:1 95:1 96:1 97:1 98:1 99:1 100:1 101:1 102:1 103:1 104:1 105:1 106:1 107:1 108:1 109:1 110:1 111:0.9375 112:0.859375 113:0.71875 114:0.640625 115:0.578125 116:0.53125 117:0.5 118:0.5 119:0.5 120:0.515625 121:0.53125 122:0.5625 123:0.640625 124:0.71875 125:0.875 126:1 127:1 128:1 
-33.50339925592414 -31.34699850333341 -105.7967192995285 -182.7212701914349 -130.1895133596584 -256 65:1 66:1 67:0.953125 68:0.8125 69:0.609375 70:0.453125 71:0.40625 72:0.328125 73:0.28125 74:0.28125 75:0.28125 76:0.28125 77:0.265625 78:0.28125 79:0.328125 80:0.390625 81:0.484375 82:0.609375 83:0.8125 84:0.96875 85:0.96875 86:0.96875 87:0.96875 88:0.96875 89:0.96875 90:0.96875 91:0.96875 92:0.96875 93:0.96875 94:0.984375 95:0.984375 96:0.984375 97:0.96875 98:0.96875 99:0.96875 100:0.953125 101:0.953125 102:0.953125 103:0.953125 104:0.953125 105:0.953125 106:0.90625 107:0.734375 108:0.546875 109:0.4375 110:0.359375 111:0.28125 112:0.25 113:0.25 114:0.234375 115:0.234375 116:0.234375 117:0.25 118:0.25 119:0.328125 120:0.40625 121:0.5 122:0.703125 123:0.875 124:1 125:1 126:1 127:1 128:1 
-0.3101813292769812 -5.576221918580786 -0 -79.51120352988137 -5.019913981973738 -104.4440246513606 1:1 2:0.96875 3:0.875 4:0.828125 5:0.8125 6:0.703125 7:0.640625 8:0.578125 9:0.53125 10:0.53125 11:0.515625 12:0.546875 13:0.546875 14:0.5625 15:0.609375 16:0.65625 17:0.75 18:0.828125 19:0.875 20:0.9375 21:1 22:0.921875 23:0.84375 24:0.8125 25:0.75 26:0.640625 27:0.609375 28:0.578125 29:0.546875 30:0.53125 31:0.53125 32:0.546875 33:0.5625 34:0.59375 35:0.625 36:0.71875 37:0.828125 38:0.859375 39:0.921875 40:1 41:0.953125 42:0.875 43:0.828125 44:0.78125 45:0.671875 46:0.59375 47:0.578125 48:0.546875 49:0.53125 50:0.515625 51:0.546875 52:0.546875 53:0.578125 54:0.625 55:0.65625 56:0.8125 57:0.84375 58:0.890625 59:1 60:1 61:1 62:0.78125 63:0.640625 64:0.5 65:1 66:1 67:1 68:1 69:1 70:1 71:1 72:1 73:0.875 74:0.8125 75:0.609375 76:0.484375 77:0.375 78:0.34375 79:0.28125 80:0.265625 81:0.265625 82:0.25 83:0.25 84:0.28125 85:0.34375 86:0.375 87:0.484375 88:0.625 89:0.765625 90:0.90625 91:0.96875 92:0.96875 93:0.96875 94:0.96875 95:0.96875 96:0.984375 97:0.984375 98:0.984375 99:1 100:1 101:1 102:1 103:0.984375 104:0.984375 105:0.984375 106:0.984375 107:0.984375 108:0.984375 109:1 110:1 111:1 112:0.9375 113:0.875 114:0.65625 115:0.53125 116:0.4375 117:0.390625 118:0.375 119:0.3125 120:0.3125 121:0.3125 122:0.3125 123:0.34375 124:0.40625 125:0.453125 126:0.5625 127:0.734375 128:0.765625 
-0 -0 -0 -70.49716632660342 -0 -256 65:1 66:1 67:1 68:1 69:1 70:0.890625 71:0.75 72:0.578125 73:0.453125 74:0.375 75:0.328125 76:0.296875 77:0.265625 78:0.25 79:0.25 80:0.25 81:0.296875 82:0.328125 83:0.375 84:0.46875 85:0.59375 86:0.765625 87:0.96875 88:0.96875 89:0.953125 90:0.953125 91:0.953125 92:0.953125 93:0.953125 94:0.953125 95:0.953125 96:0.953125 97:0.953125 98:0.953125 99:0.96875 100:0.96875 101:0.96875 102:0.953125 103:0.953125 104:0.953125 105:0.9375 106:0.9375 107:0.9375 108:0.9375 109:0.796875 110:0.578125 111:0.453125 112:0.390625 113:0.296875 114:0.265625 115:0.21875 116:0.21875 117:0.21875 118:0.21875 119:0.25 120:0.296875 121:0.359375 122:0.421875 123:0.546875 124:0.734375 125:0.953125 126:1 127:1 128:1 
-23.86321295952486 -49.57944627404092 -0 -0 -94.57952566333437 -256 65:1 66:1 67:1 68:1 69:1 70:1 71:1 72:1 73:1 74:1 75:1 76:1 77:1 78:1 79:0.703125 80:0.515625 81:0.40625 82:0.375 83:0.296875 84:0.296875 85:0.296875 86:0.296875 87:0.296875 88:0.375 89:0.390625 90:0.484375 91:0.625 92:0.953125 93:1 94:1 95:1 96:1 97:0.984375 98:0.984375 99:0.984375 100:0.984375 101:0.984375 102:0.984375 103:0.984375 104:0.984375 105:0.984375 106:0.984375 107:0.984375 108:0.984375 109:0.984375 110:0.984375 111:0.984375 112:0.96875 113:0.671875 114:0.5 115:0.40625 116:0.34375 117:0.296875 118:0.265625 119:0.265625 120:0.265625 121:0.296875 122:0.359375 123:0.4375 124:0.53125 125:0.765625 126:1 127:1 128:1 
-23.7223791878567 -0 -83.27368790200477 -137.3260260937472 -0 -0 65:1 66:1 67:1 68:1 69:1 70:1 71:1 72:1 73:1 74:1 75:1 76:1 77:1 78:0.953125 79:0.8125 80:0.59375 81:0.46875 82:0.375 83:0.3125 84:0.28125 85:0.28125 86:0.265625 87:0.265625 88:0.28125 89:0.28125 90:0.359375 91:0.40625 92:0.53125 93:0.734375 94:0.921875 95:0.921875 96:0.921875 97:0.921875 98:0.9375 99:0.9375 100:0.9375 101:0.953125 102:0.953125 103:0.953125 104:0.9375 105:0.9375 106:0.9375 107:0.9375 108:0.921875 109:0.921875 110:0.921875 111:0.921875 112:0.921875 113:0.75 114:0.5 115:0.390625 116:0.328125 117:0.296875 118:0.25 119:0.234375 120:0.234375 121:0.25 122:0.296875 123:0.359375 124:0.453125 125:0.578125 126:0.875 127:1 128:1 
